{"birds": [{"fitness": 13.09999999999997, "brain": {"layer_sizes": [4, 6, 1], "weights": [[[2.227316427432325, 2.2845500618256764, 1.7131480406295831, 0.5993209550540489], [4.439985889928738, -1.2322715025498328, -0.24730553122205423, 0.675077365744238], [-1.7309107196615265, 0.6580069959596939, 2.6493777626467905, 0.6685209998108113], [-0.2031688300591804, 1.1262297406466804, 2.3431235860851842, 2.020581060088887], [-0.15797555014071343, -1.5064472078820783, -0.2005825215040663, -0.5061332739027702], [2.5058676330167993, -0.3351552453990939, 0.38455701522418084, -1.5532057984959615]], [[2.200005030742342, 0.06409925551488638, 1.019737575033189, -3.336659014325339, 1.993506749627391, 0.667341018651725]]], "biases": [[[-2.699892818990268], [-0.8206128982356601], [-3.2392594691489434], [-1.082442748942114], [-2.0228389903026263], [-0.4485637961043166]], [[0.8332166006657528]]]}}, {"fitness": 3.1000000000000014, "brain": {"layer_sizes": [4, 6, 1], "weights": [[[1.796336950668275, 2.2845500618256764, 1.7131480406295831, 0.6015846771240269], [4.439985889928738, -1.2804153457832723, -0.24730553122205423, 0.675077365744238], [-1.7309107196615265, 1.0159190392392794, 2.6493777626467905, 0.6685209998108113], [-0.8751595243777268, -0.3279889559723237, 1.787464185907655, 2.020581060088887], [-1.030862163906754, -1.5064472078820783, -0.2005825215040663, -0.5061332739027702], [2.5058676330167993, -0.3351552453990939, 0.9653057181898445, -1.5532057984959615]], [[1.6407756254395314, -2.0535749187589296, -0.6548993917761279, -2.512085688090953, 2.7059461521572254, 1.1165509927134285]]], "biases": [[[-1.1055626560272391], [-0.8206128982356601], [-3.7517341634836203], [-1.082442748942114], [-3.440495906498379], [-0.4485637961043166]], [[0.9183490887647666]]]}}, {"fitness": 3.1000000000000014, "brain": {"layer_sizes": [4, 6, 1], "weights": [[[2.227316427432325, 2.497957176482025, 1.7131480406295831, 0.07118300171329217], [4.439985889928738, -1.2322715025498328, -0.24730553122205423, 2.6354225664580118], [-1.8839980646894323, 0.9506074274069729, 2.3001944217994197, 0.6685209998108113], [-0.2031688300591804, 1.1262297406466804, 2.3431235860851842, 0.8354279949383145], [-1.194113956860784, -1.5064472078820783, -0.7446675116644701, -0.5061332739027702], [3.1081587591358315, -1.1539561563588752, 0.38455701522418084, -1.69747446089083]], [[3.6251168308796595, -1.2356757617788703, 1.9775540683274877, -3.336659014325339, 1.993506749627391, -0.0013389389386344597]]], "biases": [[[-2.25951542769534], [-1.0930928111189444], [-3.2392594691489434], [-1.082442748942114], [-2.0228389903026263], [-0.4485637961043166]], [[0.8332166006657528]]]}}, {"fitness": 3.1000000000000014, "brain": {"layer_sizes": [4, 6, 1], "weights": [[[2.227316427432325, 2.2148596978757045, 1.7131480406295831, 0.3599897155658519], [5.223851159993271, -1.2322715025498328, -0.24730553122205423, 2.5421467138958316], [-1.7309107196615265, 1.177336021119975, 2.6493777626467905, 1.4921372628913516], [-0.2031688300591804, -1.0223766871516693, 2.1447745162067346, 2.0732607912564105], [-0.15797555014071343, -2.254893998465019, -0.2005825215040663, -0.5061332739027702], [4.055853155415959, -0.3351552453990939, 0.5929961337008955, -1.9752935618128311]], [[1.4011080116937586, 0.06409925551488638, 0.14035852804245375, -2.8584690874790293, 2.137933882873454, 0.667341018651725]]], "biases": [[[-2.699892818990268], [-1.7695979474308339], [-5.141072616832954], [-1.082442748942114], [1.259002108286079], [-0.42487032665831215]], [[0.8332166006657528]]]}}, {"fitness": 3.1000000000000014, "brain": {"layer_sizes": [4, 6, 1], "weights": [[[0.8049800468833654, 2.2845500618256764, 2.4940595241264276, -0.11788630646491716], [6.11349049509473, -1.2322715025498328, 1.5629731344361781, 0.675077365744238], [-0.7354462856431957, 0.7069480553122854, 2.6493777626467905, 0.6685209998108113], [-0.2031688300591804, 1.1262297406466804, 2.3431235860851842, 2.020581060088887], [-0.43717514974762883, -1.5064472078820783, -1.4059366496835919, -0.5061332739027702], [1.2541994300793133, 0.02602000872013821, 0.38455701522418084, -1.5532057984959615]], [[0.8962299529364395, 0.06409925551488638, 1.019737575033189, -1.8969449313948035, 1.3810475147606904, 1.7883734591772482]]], "biases": [[[-2.527177562808293], [-0.8206128982356601], [-3.2392594691489434], [-1.082442748942114], [-2.0228389903026263], [-0.31124407541620336]], [[2.0293559043743516]]]}}, {"fitness": 2.9000000000000012, "brain": {"layer_sizes": [4, 6, 1], "weights": [[[2.227316427432325, 2.2845500618256764, 0.8456210708833973, 0.5993209550540489], [4.439985889928738, -1.2322715025498328, -0.24730553122205423, 0.675077365744238], [-1.7309107196615265, 0.8428859293880534, 2.439409608863385, 0.6685209998108113], [-0.2031688300591804, 2.566034669437607, 2.5829891233711026, 3.7335603424294095], [-0.15797555014071343, -2.070363362472619, -0.2005825215040663, -0.5061332739027702], [2.5058676330167993, -0.03171602305940735, 0.38455701522418084, 1.09913886027869]], [[2.200005030742342, -0.7315574056392612, 0.3492356712718082, -4.108739469940112, 1.993506749627391, 0.667341018651725]]], "biases": [[[-2.5203375009531017], [-2.288494528439754], [-2.5394788466450047], [-1.082442748942114], [-2.0228389903026263], [-0.4485637961043166]], [[0.8332166006657528]]]}}, {"fitness": 13.09999999999997, "brain": {"layer_sizes": [4, 6, 1], "weights": [[[2.227316427432325, 2.2845500618256764, 1.7131480406295831, 0.5993209550540489], [4.027986715315986, -1.2322715025498328, -0.24730553122205423, 0.7961566655460288], [-2.525230927344484, -0.09355151131928818, 2.6493777626467905, 0.6685209998108113], [-0.2031688300591804, 1.1262297406466804, 2.3431235860851842, 2.020581060088887], [-0.2602600590330155, -1.5064472078820783, -0.1788914064718523, -0.5061332739027702], [2.5058676330167993, -0.3351552453990939, 0.38455701522418084, -1.5532057984959615]], [[1.3034195260249715, 0.8695200001512295, 1.019737575033189, -3.336659014325339, 1.993506749627391, 0.667341018651725]]], "biases": [[[-1.0853045677898443], [-0.8206128982356601], [-3.2392594691489434], [-1.082442748942114], [-2.0228389903026263], [-0.5170537984723713]], [[0.8332166006657528]]]}}, {"fitness": 2.9000000000000012, "brain": {"layer_sizes": [4, 6, 1], "weights": [[[2.227316427432325, 2.2845500618256764, 1.7131480406295831, 0.5993209550540489], [5.390951337396772, -0.7867837254441787, -0.24730553122205423, 0.9802018059508614], [-1.1159987732885135, 0.6580069959596939, 2.6493777626467905, 0.6685209998108113], [0.8016593889206155, 1.1262297406466804, 2.3431235860851842, 2.020581060088887], [1.3940383606294837, -1.5064472078820783, -0.2005825215040663, -1.28457503348397], [1.8007609384609384, -0.3351552453990939, 0.38455701522418084, -1.5532057984959615]], [[2.03508990794779, 0.06409925551488638, 1.019737575033189, -6.456635635241077, 1.993506749627391, 0.667341018651725]]], "biases": [[[-2.8324958376445237], [-1.2919296345354947], [-2.40978310490146], [-1.082442748942114], [-2.0228389903026263], [-0.4485637961043166]], [[2.3345756253679344]]]}}, {"fitness": 2.9000000000000012, "brain": {"layer_sizes": [4, 6, 1], "weights": [[[-0.9461747773523341, 2.992311179811817, 1.2237247329798429, 0.5993209550540489], [5.61194614431764, -2.3190301222593734, -0.24730553122205423, 1.1408271315585157], [-2.7515480892158077, 0.6580069959596939, 2.898486673031492, -0.25585125336597536], [-0.2031688300591804, 1.1262297406466804, 2.4951383100782762, 1.6512075749878958], [-0.15797555014071343, -3.217607674866233, 0.42867081384202466, -0.5324450918578022], [2.5058676330167993, -0.5742372378503626, -1.0979122428502601, -3.0671071745921052]], [[2.200005030742342, 0.06409925551488638, 1.019737575033189, -3.8038170958060626, 1.9658391562152242, 1.0278141626981254]]], "biases": [[[-2.699892818990268], [0.6823217101744842], [-3.2392594691489434], [-1.082442748942114], [-1.9851052773883326], [-0.4485637961043166]], [[-0.5424560538929718]]]}}, {"fitness": 13.09999999999997, "brain": {"layer_sizes": [4, 6, 1], "weights": [[[2.227316427432325, 2.2845500618256764, 1.7131480406295831, 0.5993209550540489], [4.439985889928738, -1.2322715025498328, -0.24730553122205423, -0.4059232463499821], [-0.24664036931426958, 0.6945332386023555, -0.2607262056605366, 0.36621961621802523], [-0.2031688300591804, 0.930710802761162, 2.3431235860851842, 2.020581060088887], [-0.15797555014071343, -1.7911942580069569, -0.2005825215040663, -0.5061332739027702], [2.5058676330167993, -1.9356602426375211, 0.38455701522418084, -1.5532057984959615]], [[2.200005030742342, 0.06409925551488638, 0.9866151809975037, -3.336659014325339, 2.1919725702384207, 0.667341018651725]]], "biases": [[[-2.699892818990268], [-2.1812715548295487], [-3.2392594691489434], [-1.071512441598189], [-2.0228389903026263], [-0.733193092649117]], [[0.8332166006657528]]]}}, {"fitness": 3.1000000000000014, "brain": {"layer_sizes": [4, 6, 1], "weights": [[[0.8789725661461376, 2.2845500618256764, 1.7131480406295831, 1.0041838641253855], [4.439985889928738, -2.222654201829112, -0.5747411958708724, 1.0164825830789457], [-2.9850202333704265, 2.0933770649391032, 0.4001503045673993, 1.465228531275892], [-0.2031688300591804, 1.2006494795706733, 2.3431235860851842, 4.202278218045965], [-0.15797555014071343, -1.5064472078820783, -0.2005825215040663, -1.7703974216628704], [2.5058676330167993, 1.6455516798025434, 0.38455701522418084, -1.4848674208782235]], [[2.200005030742342, 0.06409925551488638, 1.216143682448746, -3.336659014325339, 1.001184613910468, 0.9442050209603609]]], "biases": [[[-1.2979869667167299], [-1.7618673063633192], [-3.2392594691489434], [-1.082442748942114], [-2.0228389903026263], [-0.4485637961043166]], [[0.8332166006657528]]]}}, {"fitness": 3.1000000000000014, "brain": {"layer_sizes": [4, 6, 1], "weights": [[[3.4685096383813034, 1.2908814469912544, 2.183036173137263, 0.5993209550540489], [5.426039330010273, -2.1304202913065593, -0.24730553122205423, 0.675077365744238], [-3.206389167507831, -0.575741377887268, 2.6493777626467905, 2.1373217829892255], [-0.8863053959021291, 1.2181553986258942, 2.3431235860851842, 0.6398243393618865], [-0.15797555014071343, -1.8681740537833953, -0.2005825215040663, -0.5061332739027702], [1.9050030225739183, 0.2995367603996446, 2.1749671124092806, -1.5532057984959615]], [[2.843894414670173, -1.0716790823177078, 1.577625258038184, -3.148344789057321, 1.993506749627391, 0.667341018651725]]], "biases": [[[-2.699892818990268], [0.5572790595396421], [-1.5677269375524634], [-1.082442748942114], [-2.0228389903026263], [-0.4485637961043166]], [[0.9036188226119972]]]}}, {"fitness": 3.600000000000002, "brain": {"layer_sizes": [4, 6, 1], "weights": [[[2.227316427432325, 3.937277020580325, -0.1642112451818838, -1.1613970693157225], [4.439985889928738, -1.2322715025498328, -0.24730553122205423, 0.675077365744238], [-0.7896621940025218, -1.304079385163819, 2.175348583402462, 0.790357714707512], [-0.2031688300591804, 1.1262297406466804, 2.529462860760942, 2.020581060088887], [0.736678952504913, 0.5430268803166087, -0.2005825215040663, 1.1497023978333325], [3.707785764413173, -1.1266621898823062, 0.38455701522418084, -1.5532057984959615]], [[1.5124679072405924, 0.06409925551488638, 1.019737575033189, -3.336659014325339, 1.993506749627391, 0.667341018651725]]], "biases": [[[-2.699892818990268], [1.2460086332939082], [-3.355713734547916], [-1.1532447885550412], [-0.3736471551329028], [-1.6648352945471276]], [[0.6677271660169073]]]}}, {"fitness": 13.09999999999997, "brain": {"layer_sizes": [4, 6, 1], "weights": [[[2.227316427432325, 2.2845500618256764, 1.369012838054447, 1.9190683729492228], [4.313549585108669, -1.2322715025498328, -0.24730553122205423, 0.6212893094285196], [-1.7309107196615265, 0.6580069959596939, 3.39373606553437, 0.5891705125035683], [-0.2031688300591804, 0.9122311562326011, 2.3431235860851842, 2.020581060088887], [-1.6604207291627857, -2.6769417829268227, -0.2005825215040663, -0.5061332739027702], [2.2369451692399642, -0.3351552453990939, 0.38455701522418084, -1.5532057984959615]], [[2.200005030742342, 0.656965632027059, -0.0426505410873641, -3.336659014325339, 1.993506749627391, 1.5681401532762957]]], "biases": [[[-4.296179402947777], [-0.8206128982356601], [-2.9146033975063954], [-1.082442748942114], [-1.9742843917608175], [-0.4485637961043166]], [[0.8332166006657528]]]}}, {"fitness": 2.9000000000000012, "brain": {"layer_sizes": [4, 6, 1], "weights": [[[2.227316427432325, 3.9792490217813388, 0.3585986451028238, 0.2682786866973652], [4.439985889928738, -1.2322715025498328, -0.1414312033618445, 2.2568114951859046], [-1.7309107196615265, -0.2384139771002649, 2.6493777626467905, -0.29893966369496006], [-0.07581046358337223, 1.1262297406466804, 2.3431235860851842, 2.0590686512484937], [-0.15797555014071343, -1.5064472078820783, -1.0188292014794946, -0.6784967230054821], [2.001105141603397, -0.3351552453990939, 0.38455701522418084, -1.2952409007834973]], [[2.200005030742342, 0.06409925551488638, 3.004526656133538, -4.260009279507219, 1.4110254633503636, 0.667341018651725]]], "biases": [[[-2.699892818990268], [-0.8206128982356601], [-3.2392594691489434], [-0.4471283035283211], [-1.0873907185326352], [-2.5605716880914273]], [[0.8332166006657528]]]}}]}